const int N_cb = 127;
double cb_weights[] = {0.0336739,0.0336739,0.0336739,0.0336739,0.0336739,0.0336739,0.0336739,0.0336739,0.0336739,0.0336739,0.0336739,0.0336739,0.0336739,0.0336739,0.0239760,0.0239760,0.0239760,0.0239760,0.0239760,0.0239760,0.0239760,0.0239760,0.0239760,0.0239760,0.0239760,0.0239760,0.0239760,0.0239760,0.0110887,0.0110887,0.0110887,0.0110887,0.0110887,0.0110887,0.0110887,0.0110887,0.0110887,0.0110887,0.0110887,0.0110887,0.0110887,0.0110887,0.0234057,0.0234057,0.0234057,0.0234057,0.0234057,0.0234057,0.0234057,0.0234057,0.0234057,0.0234057,0.0234057,0.0234057,0.0234057,0.0234057,0.0365630,0.0365630,0.0365630,0.0365630,0.0365630,0.0365630,0.0365630,0.0365630,0.0365630,0.0365630,0.0365630,0.0365630,0.0365630,0.0365630,0.0404399,0.0404399,0.0404399,0.0404399,0.0404399,0.0404399,0.0404399,0.0404399,0.0404399,0.0404399,0.0404399,0.0404399,0.0404399,0.0404399,0.0292596,0.0292596,0.0292596,0.0292596,0.0292596,0.0292596,0.0292596,0.0292596,0.0292596,0.0292596,0.0292596,0.0292596,0.0292596,0.0292596,0.0179109,0.0179109,0.0179109,0.0179109,0.0179109,0.0179109,0.0179109,0.0179109,0.0179109,0.0179109,0.0179109,0.0179109,0.0179109,0.0179109,0.0040660,0.0040660,0.0040660,0.0040660,0.0040660,0.0040660,0.0040660,0.0040660,0.0040660,0.0040660,0.0040660,0.0040660,0.0040660,0.0040660,0.0562205};
double cb_xi[] = {0.7374505,0.6644200,0.4597929,0.1640982,-0.1640982,-0.4597929,-0.6644200,-0.7374505,-0.6644200,-0.4597929,-0.1640982,0.1640982,0.4597929,0.6644200,0.8959411,0.8072150,0.5586101,0.1993656,-0.1993656,-0.5586101,-0.8072150,-0.8959411,-0.8072150,-0.5586101,-0.1993656,0.1993656,0.5586101,0.8072150,0.9803819,0.8832936,0.6112581,0.2181555,-0.2181555,-0.6112581,-0.8832936,-0.9803819,-0.8832936,-0.6112581,-0.2181555,0.2181555,0.6112581,0.8832936,0.2527641,0.2277326,0.1575958,0.0562453,-0.0562453,-0.1575958,-0.2277326,-0.2527641,-0.2277326,-0.1575958,-0.0562453,0.0562453,0.1575958,0.2277326,0.4474868,0.4031717,0.2790035,0.0995752,-0.0995752,-0.2790035,-0.4031717,-0.4474868,-0.4031717,-0.2790035,-0.0995752,0.0995752,0.2790035,0.4031717,0.6131572,0.5524355,0.3822972,0.1364403,-0.1364403,-0.3822972,-0.5524355,-0.6131572,-0.5524355,-0.3822972,-0.1364403,0.1364403,0.3822972,0.5524355,0.8251693,0.7434519,0.5144847,0.1836175,-0.1836175,-0.5144847,-0.7434519,-0.8251693,-0.7434519,-0.5144847,-0.1836175,0.1836175,0.5144847,0.7434519,0.9453171,0.8517012,0.5893955,0.2103528,-0.2103528,-0.5893955,-0.8517012,-0.9453171,-0.8517012,-0.5893955,-0.2103528,0.2103528,0.5893955,0.8517012,0.9960205,0.8973835,0.6210086,0.2216354,-0.2216354,-0.6210086,-0.8973835,-0.9960205,-0.8973835,-0.6210086,-0.2216354,0.2216354,0.6210086,0.8973835,0.0000000};
double cb_yi[] = {0.0000000,0.3199678,0.5765620,0.7189611,0.7189611,0.5765620,0.3199678,0.0000000,-0.3199678,-0.5765620,-0.7189611,-0.7189611,-0.5765620,-0.3199678,0.0000000,0.3887343,0.7004749,0.8734780,0.8734780,0.7004749,0.3887343,0.0000000,-0.3887343,-0.7004749,-0.8734780,-0.8734780,-0.7004749,-0.3887343,0.0000000,0.4253718,0.7664934,0.9558017,0.9558017,0.7664934,0.4253718,0.0000000,-0.4253718,-0.7664934,-0.9558017,-0.9558017,-0.7664934,-0.4253718,0.0000000,0.1096702,0.1976189,0.2464268,0.2464268,0.1976189,0.1096702,0.0000000,-0.1096702,-0.1976189,-0.2464268,-0.2464268,-0.1976189,-0.1096702,0.0000000,0.1941573,0.3498593,0.4362674,0.4362674,0.3498593,0.1941573,0.0000000,-0.1941573,-0.3498593,-0.4362674,-0.4362674,-0.3498593,-0.1941573,0.0000000,0.2660389,0.4793856,0.5977840,0.5977840,0.4793856,0.2660389,0.0000000,-0.2660389,-0.4793856,-0.5977840,-0.5977840,-0.4793856,-0.2660389,0.0000000,0.3580276,0.6451434,0.8044806,0.8044806,0.6451434,0.3580276,0.0000000,-0.3580276,-0.6451434,-0.8044806,-0.8044806,-0.6451434,-0.3580276,0.0000000,0.4101577,0.7390786,0.9216160,0.9216160,0.7390786,0.4101577,0.0000000,-0.4101577,-0.7390786,-0.9216160,-0.9216160,-0.7390786,-0.4101577,0.0000000,0.4321571,0.7787202,0.9710482,0.9710482,0.7787202,0.4321571,0.0000000,-0.4321571,-0.7787202,-0.9710482,-0.9710482,-0.7787202,-0.4321571,0.0000000};
